solver_type L1R_LR
nr_class 2
label 1 -1
nr_feature 1000
bias -1
w
0.798183
-0.717816
0.633899
-0.576580
0.534287
-0.523292
0.436166
-0.356635
0.348562
-0.332688
0.257628
-0.249583
0.224452
-0.287108
0.208103
-0.152532
0.144110
-0.098329
0.151055
-0.126140
0.066732
-0.036299
0.093006
-0.056420
0.076326
-0.069764
0.019686
-0.043620
0.006406
0
0.002642
-0.010261
0.015856
-0.040393
0.027003
-0.069105
0.018244
0
0
-0.004505
0.026379
0
0.058581
-0.012471
0
-0.033340
0
-0.009821
0.026724
-0.010759
0
-0.026417
0
-0.013581
0
-0.036737
0.025388
0.014230
0
0
-0.013964
0
0.008339
0
0
-0.019377
0
0
-0.026943
-0.038339
0
0
0.036310
0.005546
0
-0.034152
0.041611
0.017417
-0.028236
0
0
0
-0.021031
-0.005009
-0.004726
0.016387
0
0
0
0
-0.009420
0.012680
0
0.022626
0.020985
-0.010601
0.000819
0.012386
0.026359
-0.025057
-0.012985
0
0.013398
0
-0.001265
0
-0.007502
0.020030
-0.009012
0.007396
-0.009497
0
0
-0.003460
0
0
0.005154
-0.006354
0
0
0.003740
-0.040486
0.002727
0
-0.040580
0.007240
-0.006957
0
0
0
0
0
0.029854
-0.008010
0
0
0
0
0.000093
0
-0.001416
0
0
-0.000306
0
-0.005371
-0.023911
0.030885
-0.009795
-0.016285
0
-0.019850
0.005419
0.039511
0
0.010070
0.042589
-0.000648
0.012975
0.002569
-0.024883
0.009621
-0.023129
-0.002354
0.023559
-0.022951
0.019848
0
0
-0.003245
-0.020695
0
0
-0.033538
-0.018518
0.012609
-0.014972
0
0.002569
0.000868
0
0
0
0.052117
0.004709
0.004662
0
-0.003240
0
0.031230
0
0
0.021167
0.003566
-0.021989
-0.001244
0.019131
0
0
-0.006530
0
-0.065247
0.040361
-0.015764
-0.000302
0
0.050546
0
0.004341
-0.005915
0.013959
0.024476
0.002972
-0.003880
0
0
0
0.028542
0.007758
-0.070755
0
-0.004306
0.002043
0
-0.045788
-0.006738
0.004890
0
0
0.001692
0
0.008015
0
0
0
0.026181
0
0
0.036061
-0.033612
0
0.011396
0
0
0
-0.018093
0
0.005123
0
-0.007360
0
-0.003315
0.022624
0.005142
0.007658
0.023506
0
0
-0.029757
0
-0.047532
0
0
0
-0.014785
-0.061647
0.001732
0.001325
-0.004241
-0.005179
-0.007711
0.014168
0.018785
0
0
0
0
-0.009477
0
0.020760
-0.053711
0
-0.060177
0
0
0
0
0.011491
0.031264
0
0.003473
-0.037365
0
0.005991
0
-0.009018
0
0
0
-0.027554
0
0.022841
0.010772
0.001253
-0.010669
-0.033680
0.015392
0
0
-0.013051
0.008191
0.023267
-0.019949
0.011656
-0.015207
0
-0.015441
0
0
0.045511
0
-0.006481
-0.026738
0.003566
0.027701
0.019571
0.013822
-0.004728
0.004342
0
0.010151
0.050520
-0.019338
0
0
0.022059
-0.036629
-0.045950
0.017188
0
-0.001913
0
0.004787
0.006376
0
0
0.000550
0.022318
0.017164
-0.011749
0
0
0.001485
0.016544
0
-0.016196
0.004954
0
0
0.009337
0.001881
0
0.020961
0.031159
0.009814
0.014905
-0.038627
-0.061856
-0.005879
-0.036175
0
0.033213
0
-0.028953
0.001602
0
0.017011
-0.029704
0
0.003764
0
0
0
0.016702
0.021867
-0.002047
0
-0.004893
0
-0.034767
-0.015294
0
-0.019205
0
-0.031247
-0.032806
0
-0.001532
0
-0.025203
-0.009701
-0.014042
0.015284
0
-0.020299
0
0.021795
-0.022127
-0.017033
-0.020461
0
-0.000313
-0.000079
0.045954
-0.021446
0.012399
-0.003558
-0.006104
0.025247
0.015183
0
0
0
-0.017071
-0.008180
-0.004460
0
0.009801
0.050329
-0.019687
0
0.028218
-0.012405
0
0
0.040748
0
0.005692
0
0
0.062338
-0.006538
-0.002087
-0.003898
-0.006783
0.005138
0.021982
0.000011
0
0
0.018450
0
0
0
0.017178
-0.014151
-0.008366
-0.028329
0.017675
-0.019261
0.022404
0.011486
0.008564
-0.001693
0
0.008337
-0.023079
-0.027031
0.014572
-0.029310
0.041591
-0.038638
0
0
0
0.021115
0.039159
0.003435
-0.008179
-0.013663
0
0.036988
0.017643
-0.029926
0.019033
0.003473
-0.011687
0
-0.035671
-0.003183
0
0
-0.027526
-0.003651
0
-0.032951
0
0
-0.024244
0.040055
0.009203
-0.021791
-0.019403
0.000059
0.012611
-0.001843
0.029138
-0.002822
-0.006822
0.004076
-0.002366
0.037630
-0.017618
0
0.002992
-0.054898
-0.009902
-0.000818
-0.003371
-0.000987
-0.015676
0
0
-0.000070
-0.021082
0
0.010595
0
0.014219
-0.016872
-0.000723
0.013825
0.027236
-0.001642
0.013048
-0.011842
0
-0.023289
0.014592
0.027381
0.003317
0.006950
0.002302
0
0.012365
-0.035188
0
-0.027505
0.019714
0
0
0.009966
0.008131
0
-0.005082
-0.009603
0.031546
0.002444
0
0.038939
0
0
-0.012129
0.024976
0.031283
-0.000206
0.022947
-0.003121
0.018831
0.026346
0
0
0
0.049959
-0.022230
0
-0.004522
0
0
-0.027894
0
-0.030631
0
0.014963
0
0.007838
0.030778
-0.017621
0.023784
0
0
0.005410
-0.022288
-0.026847
0
-0.027767
0
0
-0.011728
-0.027842
-0.041064
-0.018231
-0.032972
-0.043089
-0.015848
0
0
0
0.029047
-0.011034
0
-0.034249
0.014259
-0.020804
0.018630
-0.009001
0
-0.045720
0
0
0
0
0.027544
0
0.006327
-0.035772
0.013140
-0.014082
-0.013021
-0.001229
-0.007456
0
-0.024212
0.038497
0
-0.009521
-0.006871
0.003420
0.024027
-0.004642
-0.023956
-0.010611
-0.023908
0.012801
0.030218
0.003713
0
-0.020637
-0.005422
0.000401
0.021797
-0.001249
0
0
-0.021758
0
0.051096
0
0.015584
-0.010561
0
0.036143
-0.018149
0.006139
0
-0.010202
-0.024158
0
-0.008386
0.011137
0
0.030129
0.059659
0.016347
0
0
-0.018293
0.038306
-0.007008
-0.033154
0.001402
-0.038233
-0.013974
0.003768
0.034012
0.011646
0.021146
-0.009461
-0.009369
0.015051
0
0.010959
-0.036217
0.000534
0
0
0.044690
0.033095
0
0.033891
0
0.035546
0.007448
0
0.045283
0
0.040828
0
0.028936
-0.022756
0
0.005595
0.010450
0
0
0.025816
-0.051876
0.027789
-0.007722
0
0.038482
0
0
-0.010196
0
0
-0.030059
0.002060
-0.027122
-0.013297
0
0
-0.025957
0.007152
0.004743
-0.018626
0.002764
-0.015057
0.021952
0
0
0
0
0.032860
0
-0.007654
0.004758
-0.027291
-0.010645
-0.037286
0
0.000055
-0.005503
0
-0.014608
0.031995
0
0.014906
-0.036799
0.009225
0
0
0
0.031371
0.032560
-0.017598
0.013085
0
0
0
0.003421
-0.012212
-0.025584
-0.007202
0.016955
-0.007719
0
-0.047056
0.017294
0.028801
-0.000144
-0.007810
-0.018134
-0.042941
-0.044342
0.023092
0
0.000198
0
0.020632
0.011661
-0.014864
0
0
-0.025751
0
-0.004196
0.021281
0.024640
0
0.050221
0
0.010219
0
0
0.004901
0.021048
0
0.009790
0
0
-0.037949
-0.035845
0
-0.015856
0.027090
0.020501
0.057711
-0.016546
0.003136
0
0
-0.012638
-0.042703
-0.036502
0.013489
0
0
0
0.006052
0
0.020989
0.002137
0
0.037733
0.033311
0.000863
0
-0.006186
0.021921
0
0.036402
0
0
0.047883
0
0
0.016863
0
0.008196
0
0.029520
-0.052299
-0.019270
0.012603
0
0
-0.027306
0.018269
-0.003522
0.016787
0.003427
0
0
0.001706
-0.002881
0
-0.034342
-0.007723
0.008174
0.030378
-0.001377
0.009642
0.018386
0.010804
-0.011030
0
0.028134
-0.016991
0
0
0
-0.008371
0
0
0.019368
0.013346
0.014665
0.044406
0
-0.004540
0.018349
0
0
0
0.001487
0.018569
0.000610
-0.030866
-0.012088
0.034969
0.004811
0
-0.017606
-0.044716
0
0.045488
-0.009279
0
0
0.000839
0
-0.009284
-0.045374
0
0.007852
0.016387
-0.044826
0.010944
0.008037
0
0
-0.002281
-0.032050
0.037302
-0.015436
0.018909
0
-0.004696
0.027241
0.023795
0.005297
0
-0.026338
0
0
-0.007769
-0.022524
-0.004914
0
0.003454
0
0
-0.000478
0
-0.032177
-0.047340
-0.034970
0
0.032778
-0.005445
0
0
-0.002970
0
0.005663
-0.011452
0
0
0.023823
0.028073
0
-0.018099
0.036281
0
0
0.076690
-0.006268
-0.034841
0
0.001489
0.005154
0.043209
-0.003840
0.013476
-0.039682
-0.012703
-0.010498
0.017341
0.008090
0.005305
0
-0.003521
-0.034018
-0.016025
0
0
0.004413
0
0.002051
-0.067486
0
0
0.000348
0.021969
0.040370
0
0
0
0
