solver_type L1R_LR
nr_class 2
label 1 -1
nr_feature 1000
bias -1
w
0.801133
-0.719433
0.635432
-0.577283
0.535801
-0.523320
0.437617
-0.356802
0.349744
-0.333227
0.258012
-0.249353
0.226027
-0.287521
0.207884
-0.153162
0.145027
-0.098274
0.151284
-0.126998
0.066364
-0.037390
0.092776
-0.057546
0.075976
-0.070975
0.019178
-0.044527
0.005488
0
0.001840
-0.010811
0.015017
-0.041526
0.025673
-0.070760
0.017284
0
0
-0.006012
0.024719
0
0.057291
-0.013797
0
-0.034644
0
-0.011547
0.025305
-0.012331
0
-0.026969
0
-0.014572
0
-0.037254
0.023876
0.011944
0
0
-0.015053
0
0.007247
0
0
-0.021320
0
0
-0.028636
-0.039320
0
0
0.035990
0.003308
0
-0.035679
0.040894
0.015813
-0.029919
0
0
0
-0.022776
-0.007156
-0.006067
0.014569
0
0
0
0
-0.011127
0.011223
0
0.021781
0.019476
-0.012345
0
0.010443
0.024705
-0.026016
-0.014688
0
0.011540
0
-0.003482
0
-0.008983
0.017774
-0.011294
0.005460
-0.010869
0
0
-0.005710
0
0
0.003847
-0.007732
0
0
0.001919
-0.041257
0.000921
0
-0.041981
0.005773
-0.008103
0
0
0
0
0
0.028269
-0.009796
0
0
-0.000802
-0.001100
0
0
-0.002117
0
0
-0.001715
0
-0.005323
-0.024861
0.030426
-0.010853
-0.017127
0
-0.020588
0.004386
0.038850
0
0.009379
0.043245
-0.001052
0.013124
0.002759
-0.024921
0.009309
-0.022232
-0.002345
0.023852
-0.023122
0.020692
0
0
-0.003163
-0.020293
0
0
-0.033228
-0.018802
0.013273
-0.015162
0
0.003476
0.000728
0
0
0
0.052337
0.005464
0.005018
0
-0.001902
0
0.031484
0
0
0.022574
0.004609
-0.022456
-0.001557
0.018892
0
0
-0.005513
0
-0.065435
0.040372
-0.015285
-0.000033
0
0.050795
0
0.004443
-0.005620
0.013865
0.025059
0.003618
-0.004000
0
0
0
0.029728
0.008785
-0.070925
0
-0.003765
0.002947
0
-0.045359
-0.006084
0.005189
0
0
0.002120
0
0.009124
0
0
0
0.027072
0
0
0.036592
-0.033216
0
0.012213
0
0
0
-0.017550
0
0.006116
0
-0.005805
0
-0.003048
0.023196
0.006489
0.008740
0.023929
0
0
-0.029159
0
-0.046484
0
0
0
-0.014973
-0.061106
0.002066
0.001700
-0.003031
-0.005018
-0.007686
0.014914
0.018951
0
0.000273
0
0
-0.008936
0
0.021153
-0.053473
-0.000027
-0.059815
0
0
0
0
0.012143
0.031318
0
0.002874
-0.037593
0
0.006302
-0.000579
-0.009653
0
0
0
-0.028099
0
0.022706
0.010076
0.000460
-0.012076
-0.034531
0.014765
0
0
-0.014168
0.007157
0.021739
-0.021218
0.010740
-0.017344
0
-0.017046
0
0
0.044232
0
-0.007859
-0.027971
0.001709
0.025323
0.017625
0.011500
-0.006206
0.003005
0
0.007287
0.049319
-0.020730
0
-0.000516
0.020273
-0.038300
-0.047920
0.015791
0
-0.004019
0
0.002870
0.004655
0
0
0
0.020782
0.015293
-0.013887
0
0
0
0.014489
0
-0.017384
0.002813
0
0
0.008762
0.000760
0
0.019465
0.029410
0.008905
0.014413
-0.039804
-0.062509
-0.005998
-0.037221
0
0.032782
0
-0.029293
0.001121
0
0.016965
-0.029439
0
0.004750
0
0
0
0.017296
0.021786
-0.001956
0
-0.004714
0
-0.034251
-0.014663
0
-0.019077
0
-0.030303
-0.032886
0
-0.001469
0
-0.024762
-0.009469
-0.013271
0.015954
0
-0.020568
0
0.021774
-0.021708
-0.016712
-0.020862
0
-0.000484
-0.000197
0.045997
-0.022031
0.011182
-0.004730
-0.007014
0.024733
0.014497
0
0
0
-0.018275
-0.008992
-0.005800
0
0.008168
0.049118
-0.021075
0
0.026807
-0.013662
0
0
0.038956
0
0.003846
0
0
0.061322
-0.009076
-0.003647
-0.006291
-0.008542
0.003836
0.021336
0
0
0
0.017279
0
0
0
0.015731
-0.015340
-0.008924
-0.029965
0.016690
-0.020351
0.021709
0.010876
0.008480
-0.002464
0
0.007907
-0.023308
-0.026643
0.014572
-0.029153
0.042349
-0.037650
0
0
0
0.021789
0.039724
0.004119
-0.006844
-0.012186
0.000058
0.038424
0.018001
-0.028436
0.020340
0.004088
-0.010573
0
-0.034665
-0.002479
0
0
-0.026274
-0.002178
0
-0.031690
0
0
-0.023198
0.042019
0.010072
-0.020610
-0.017852
0.001848
0.013838
-0.000639
0.030783
-0.001551
-0.006051
0.005291
-0.001513
0.037829
-0.016868
0
0.004149
-0.054475
-0.009786
-0.000772
-0.002835
-0.000739
-0.016194
0
0
-0.000367
-0.021265
0
0.011406
0
0.013910
-0.018409
-0.001053
0.013476
0.027478
-0.002327
0.012816
-0.012915
0
-0.023741
0.014438
0.026170
0.002632
0.006235
0.001488
0
0.011375
-0.036199
0
-0.029887
0.018934
0
0
0.009354
0.007432
0
-0.005495
-0.010669
0.031021
0.000779
0
0.038488
0
0
-0.013095
0.024411
0.030797
-0.001544
0.022687
-0.003987
0.019010
0.025160
0
0
0
0.049767
-0.022859
0
-0.005294
0
0
-0.027861
0
-0.031586
0
0.015414
0
0.008188
0.031726
-0.017021
0.024528
0
0
0.005570
-0.021530
-0.025855
0.000313
-0.026452
0.000927
0
-0.010381
-0.026704
-0.039103
-0.017005
-0.031556
-0.041260
-0.014507
0
0
0
0.030084
-0.010187
0
-0.032491
0.015585
-0.019675
0.020478
-0.007697
0
-0.044311
0
0
0.001343
0
0.028643
0.000650
0.006150
-0.034531
0.014371
-0.014389
-0.013038
-0.000952
-0.007570
0
-0.024198
0.038312
0
-0.009768
-0.007341
0.002864
0.023656
-0.004866
-0.024999
-0.011693
-0.024675
0.011518
0.028182
0.002492
0
-0.023007
-0.007536
0
0.020704
-0.003471
0
0
-0.024547
-0.002263
0.048445
0
0.012982
-0.013401
0
0.034445
-0.020189
0.003628
0
-0.011889
-0.026119
0
-0.011057
0.009439
0
0.027981
0.058374
0.015059
-0.000564
0
-0.020130
0.036416
-0.008599
-0.035171
0
-0.038971
-0.014612
0.001937
0.033864
0.010405
0.021075
-0.010917
-0.009912
0.013673
0
0.010071
-0.037114
0
0
0
0.044214
0.032605
0
0.033782
0
0.035598
0.007225
0
0.045848
0
0.041395
0
0.029026
-0.022486
0
0.006450
0.012024
0
0
0.026572
-0.050578
0.029203
-0.006214
0
0.040188
0
0
-0.008540
0
0
-0.028589
0.003810
-0.025376
-0.010676
0
0
-0.023565
0.009409
0.007280
-0.015252
0.005080
-0.011718
0.025420
0
0
0
0.000490
0.035344
0
-0.004637
0.007385
-0.024267
-0.006847
-0.034157
0.000929
0.002812
-0.002820
0
-0.011906
0.034640
0
0.017665
-0.034899
0.011638
0
0
0
0.033719
0.034684
-0.015672
0.015191
0
0
0
0.005614
-0.010268
-0.024058
-0.006241
0.019243
-0.006256
0
-0.045517
0.018956
0.029474
0
-0.007080
-0.018082
-0.042875
-0.043405
0.023119
0
0.000438
0
0.020962
0.012060
-0.015199
0
0
-0.025181
0
-0.003921
0.020927
0.024019
0
0.049645
0
0.010130
0
0
0.004614
0.020120
0
0.008810
0
0
-0.039481
-0.036849
0
-0.016909
0.026344
0.019358
0.056913
-0.018182
0.001878
0
0
-0.013167
-0.043297
-0.036996
0.012044
0
0
0
0.005681
0
0.019896
0.001553
0
0.036994
0.032281
0
0
-0.007666
0.021018
0
0.036128
0
0
0.046876
0
0
0.016359
0
0.008691
0
0.029346
-0.051800
-0.018984
0.012911
0
0
-0.026756
0.019520
-0.003016
0.017744
0.004582
0
0
0.002209
-0.002185
0
-0.032752
-0.006460
0.009258
0.031762
0
0.011763
0.020935
0.012656
-0.008860
0
0.030503
-0.014069
0
0
0
-0.005263
0
0
0.022151
0.016146
0.017877
0.047604
0
-0.001722
0.021189
0
0
0
0.004713
0.021614
0.002961
-0.027708
-0.009172
0.037751
0.008060
0
-0.014640
-0.043081
0
0.048583
-0.006859
0
0
0.004286
0
-0.006211
-0.043362
0
0.010645
0.018858
-0.043092
0.013044
0.009921
0
0
-0.000809
-0.030466
0.039085
-0.013417
0.020654
0
-0.003457
0.028323
0.025028
0.006789
0
-0.024853
0
0
-0.007351
-0.021641
-0.003411
0
0.004465
0
0
0
0
-0.031844
-0.045970
-0.033434
0
0.034358
-0.004821
0
0
-0.002725
0
0.006686
-0.010744
0
0
0.023697
0.028830
0
-0.017593
0.036176
0
0
0.077236
-0.006378
-0.034815
0
0.001142
0.005399
0.042973
-0.004686
0.013488
-0.040589
-0.013124
-0.010383
0.016825
0.008354
0.005009
0
-0.004040
-0.034815
-0.015859
0
0
0.004268
0
0.002797
-0.067547
0
0
0.000574
0.021632
0.039669
0
0
0
0
